digraph Tree {
node [shape=box] ;
0 [label="X[0] <= 0.005\nentropy = 0.984\nsamples = 25546\nvalue = [14644, 10902]"] ;
1 [label="entropy = 0.814\nsamples = 14646\nvalue = [10955, 3691]"] ;
0 -> 1 [labeldistance=2.5, labelangle=45, headlabel="True"] ;
2 [label="X[0] <= 0.125\nentropy = 0.923\nsamples = 10900\nvalue = [3689, 7211]"] ;
0 -> 2 [labeldistance=2.5, labelangle=-45, headlabel="False"] ;
3 [label="X[0] <= 0.035\nentropy = 0.986\nsamples = 5083\nvalue = [2187, 2896]"] ;
2 -> 3 ;
4 [label="X[0] <= 0.015\nentropy = 1.0\nsamples = 2133\nvalue = [1056, 1077]"] ;
3 -> 4 ;
5 [label="entropy = 0.998\nsamples = 933\nvalue = [488, 445]"] ;
4 -> 5 ;
6 [label="X[0] <= 0.025\nentropy = 0.998\nsamples = 1200\nvalue = [568, 632]"] ;
4 -> 6 ;
7 [label="entropy = 1.0\nsamples = 707\nvalue = [346, 361]"] ;
6 -> 7 ;
8 [label="entropy = 0.993\nsamples = 493\nvalue = [222, 271]"] ;
6 -> 8 ;
9 [label="X[0] <= 0.055\nentropy = 0.96\nsamples = 2950\nvalue = [1131, 1819]"] ;
3 -> 9 ;
10 [label="X[0] <= 0.045\nentropy = 0.974\nsamples = 847\nvalue = [344, 503]"] ;
9 -> 10 ;
11 [label="entropy = 0.973\nsamples = 428\nvalue = [173, 255]"] ;
10 -> 11 ;
12 [label="entropy = 0.975\nsamples = 419\nvalue = [171, 248]"] ;
10 -> 12 ;
13 [label="X[0] <= 0.115\nentropy = 0.954\nsamples = 2103\nvalue = [787, 1316]"] ;
9 -> 13 ;
14 [label="X[0] <= 0.105\nentropy = 0.956\nsamples = 1833\nvalue = [692, 1141]"] ;
13 -> 14 ;
15 [label="X[0] <= 0.075\nentropy = 0.954\nsamples = 1597\nvalue = [599, 998]"] ;
14 -> 15 ;
16 [label="X[0] <= 0.065\nentropy = 0.96\nsamples = 735\nvalue = [281, 454]"] ;
15 -> 16 ;
17 [label="entropy = 0.96\nsamples = 408\nvalue = [156, 252]"] ;
16 -> 17 ;
18 [label="entropy = 0.96\nsamples = 327\nvalue = [125, 202]"] ;
16 -> 18 ;
19 [label="X[0] <= 0.085\nentropy = 0.95\nsamples = 862\nvalue = [318, 544]"] ;
15 -> 19 ;
20 [label="entropy = 0.944\nsamples = 335\nvalue = [121, 214]"] ;
19 -> 20 ;
21 [label="X[0] <= 0.095\nentropy = 0.954\nsamples = 527\nvalue = [197, 330]"] ;
19 -> 21 ;
22 [label="entropy = 0.955\nsamples = 266\nvalue = [100, 166]"] ;
21 -> 22 ;
23 [label="entropy = 0.952\nsamples = 261\nvalue = [97, 164]"] ;
21 -> 23 ;
24 [label="entropy = 0.967\nsamples = 236\nvalue = [93, 143]"] ;
14 -> 24 ;
25 [label="entropy = 0.936\nsamples = 270\nvalue = [95, 175]"] ;
13 -> 25 ;
26 [label="X[0] <= 0.425\nentropy = 0.824\nsamples = 5817\nvalue = [1502, 4315]"] ;
2 -> 26 ;
27 [label="X[0] <= 0.245\nentropy = 0.872\nsamples = 3836\nvalue = [1123, 2713]"] ;
26 -> 27 ;
28 [label="X[0] <= 0.135\nentropy = 0.896\nsamples = 2126\nvalue = [664, 1462]"] ;
27 -> 28 ;
29 [label="entropy = 0.826\nsamples = 243\nvalue = [63, 180]"] ;
28 -> 29 ;
30 [label="X[0] <= 0.155\nentropy = 0.903\nsamples = 1883\nvalue = [601, 1282]"] ;
28 -> 30 ;
31 [label="X[0] <= 0.145\nentropy = 0.944\nsamples = 443\nvalue = [160, 283]"] ;
30 -> 31 ;
32 [label="entropy = 0.936\nsamples = 224\nvalue = [79, 145]"] ;
31 -> 32 ;
33 [label="entropy = 0.951\nsamples = 219\nvalue = [81, 138]"] ;
31 -> 33 ;
34 [label="X[0] <= 0.205\nentropy = 0.889\nsamples = 1440\nvalue = [441, 999]"] ;
30 -> 34 ;
35 [label="X[0] <= 0.185\nentropy = 0.87\nsamples = 889\nvalue = [259, 630]"] ;
34 -> 35 ;
36 [label="X[0] <= 0.165\nentropy = 0.882\nsamples = 565\nvalue = [170, 395]"] ;
35 -> 36 ;
37 [label="entropy = 0.89\nsamples = 215\nvalue = [66, 149]"] ;
36 -> 37 ;
38 [label="X[0] <= 0.175\nentropy = 0.878\nsamples = 350\nvalue = [104, 246]"] ;
36 -> 38 ;
39 [label="entropy = 0.868\nsamples = 190\nvalue = [55, 135]"] ;
38 -> 39 ;
40 [label="entropy = 0.889\nsamples = 160\nvalue = [49, 111]"] ;
38 -> 40 ;
41 [label="X[0] <= 0.195\nentropy = 0.848\nsamples = 324\nvalue = [89, 235]"] ;
35 -> 41 ;
42 [label="entropy = 0.834\nsamples = 151\nvalue = [40, 111]"] ;
41 -> 42 ;
43 [label="entropy = 0.86\nsamples = 173\nvalue = [49, 124]"] ;
41 -> 43 ;
44 [label="X[0] <= 0.215\nentropy = 0.915\nsamples = 551\nvalue = [182, 369]"] ;
34 -> 44 ;
45 [label="entropy = 0.936\nsamples = 142\nvalue = [50, 92]"] ;
44 -> 45 ;
46 [label="X[0] <= 0.235\nentropy = 0.907\nsamples = 409\nvalue = [132, 277]"] ;
44 -> 46 ;
47 [label="X[0] <= 0.225\nentropy = 0.898\nsamples = 267\nvalue = [84, 183]"] ;
46 -> 47 ;
48 [label="entropy = 0.916\nsamples = 133\nvalue = [44, 89]"] ;
47 -> 48 ;
49 [label="entropy = 0.879\nsamples = 134\nvalue = [40, 94]"] ;
47 -> 49 ;
50 [label="entropy = 0.923\nsamples = 142\nvalue = [48, 94]"] ;
46 -> 50 ;
51 [label="X[0] <= 0.255\nentropy = 0.839\nsamples = 1710\nvalue = [459, 1251]"] ;
27 -> 51 ;
52 [label="entropy = 0.796\nsamples = 133\nvalue = [32, 101]"] ;
51 -> 52 ;
53 [label="X[0] <= 0.355\nentropy = 0.843\nsamples = 1577\nvalue = [427, 1150]"] ;
51 -> 53 ;
54 [label="X[0] <= 0.325\nentropy = 0.851\nsamples = 1067\nvalue = [295, 772]"] ;
53 -> 54 ;
55 [label="X[0] <= 0.315\nentropy = 0.839\nsamples = 786\nvalue = [211, 575]"] ;
54 -> 55 ;
56 [label="X[0] <= 0.275\nentropy = 0.855\nsamples = 687\nvalue = [192, 495]"] ;
55 -> 56 ;
57 [label="X[0] <= 0.265\nentropy = 0.867\nsamples = 232\nvalue = [67, 165]"] ;
56 -> 57 ;
58 [label="entropy = 0.86\nsamples = 127\nvalue = [36, 91]"] ;
57 -> 58 ;
59 [label="entropy = 0.875\nsamples = 105\nvalue = [31, 74]"] ;
57 -> 59 ;
60 [label="X[0] <= 0.295\nentropy = 0.848\nsamples = 455\nvalue = [125, 330]"] ;
56 -> 60 ;
61 [label="X[0] <= 0.285\nentropy = 0.838\nsamples = 239\nvalue = [64, 175]"] ;
60 -> 61 ;
62 [label="entropy = 0.84\nsamples = 119\nvalue = [32, 87]"] ;
61 -> 62 ;
63 [label="entropy = 0.837\nsamples = 120\nvalue = [32, 88]"] ;
61 -> 63 ;
64 [label="X[0] <= 0.305\nentropy = 0.859\nsamples = 216\nvalue = [61, 155]"] ;
60 -> 64 ;
65 [label="entropy = 0.866\nsamples = 118\nvalue = [34, 84]"] ;
64 -> 65 ;
66 [label="entropy = 0.849\nsamples = 98\nvalue = [27, 71]"] ;
64 -> 66 ;
67 [label="entropy = 0.705\nsamples = 99\nvalue = [19, 80]"] ;
55 -> 67 ;
68 [label="X[0] <= 0.345\nentropy = 0.88\nsamples = 281\nvalue = [84, 197]"] ;
54 -> 68 ;
69 [label="X[0] <= 0.335\nentropy = 0.888\nsamples = 190\nvalue = [58, 132]"] ;
68 -> 69 ;
70 [label="entropy = 0.877\nsamples = 91\nvalue = [27, 64]"] ;
69 -> 70 ;
71 [label="entropy = 0.897\nsamples = 99\nvalue = [31, 68]"] ;
69 -> 71 ;
72 [label="entropy = 0.863\nsamples = 91\nvalue = [26, 65]"] ;
68 -> 72 ;
73 [label="X[0] <= 0.375\nentropy = 0.825\nsamples = 510\nvalue = [132, 378]"] ;
53 -> 73 ;
74 [label="X[0] <= 0.365\nentropy = 0.781\nsamples = 164\nvalue = [38, 126]"] ;
73 -> 74 ;
75 [label="entropy = 0.769\nsamples = 80\nvalue = [18, 62]"] ;
74 -> 75 ;
76 [label="entropy = 0.792\nsamples = 84\nvalue = [20, 64]"] ;
74 -> 76 ;
77 [label="X[0] <= 0.395\nentropy = 0.844\nsamples = 346\nvalue = [94, 252]"] ;
73 -> 77 ;
78 [label="X[0] <= 0.385\nentropy = 0.825\nsamples = 166\nvalue = [43, 123]"] ;
77 -> 78 ;
79 [label="entropy = 0.857\nsamples = 89\nvalue = [25, 64]"] ;
78 -> 79 ;
80 [label="entropy = 0.785\nsamples = 77\nvalue = [18, 59]"] ;
78 -> 80 ;
81 [label="X[0] <= 0.405\nentropy = 0.86\nsamples = 180\nvalue = [51, 129]"] ;
77 -> 81 ;
82 [label="entropy = 0.875\nsamples = 61\nvalue = [18, 43]"] ;
81 -> 82 ;
83 [label="X[0] <= 0.415\nentropy = 0.852\nsamples = 119\nvalue = [33, 86]"] ;
81 -> 83 ;
84 [label="entropy = 0.838\nsamples = 56\nvalue = [15, 41]"] ;
83 -> 84 ;
85 [label="entropy = 0.863\nsamples = 63\nvalue = [18, 45]"] ;
83 -> 85 ;
86 [label="X[0] <= 0.785\nentropy = 0.704\nsamples = 1981\nvalue = [379, 1602]"] ;
26 -> 86 ;
87 [label="X[0] <= 0.455\nentropy = 0.745\nsamples = 1321\nvalue = [280, 1041]"] ;
86 -> 87 ;
88 [label="X[0] <= 0.445\nentropy = 0.648\nsamples = 193\nvalue = [32, 161]"] ;
87 -> 88 ;
89 [label="X[0] <= 0.435\nentropy = 0.704\nsamples = 115\nvalue = [22, 93]"] ;
88 -> 89 ;
90 [label="entropy = 0.688\nsamples = 49\nvalue = [9, 40]"] ;
89 -> 90 ;
91 [label="entropy = 0.716\nsamples = 66\nvalue = [13, 53]"] ;
89 -> 91 ;
92 [label="entropy = 0.552\nsamples = 78\nvalue = [10, 68]"] ;
88 -> 92 ;
93 [label="X[0] <= 0.545\nentropy = 0.76\nsamples = 1128\nvalue = [248, 880]"] ;
87 -> 93 ;
94 [label="X[0] <= 0.535\nentropy = 0.729\nsamples = 437\nvalue = [89, 348]"] ;
93 -> 94 ;
95 [label="X[0] <= 0.515\nentropy = 0.756\nsamples = 390\nvalue = [85, 305]"] ;
94 -> 95 ;
96 [label="X[0] <= 0.495\nentropy = 0.771\nsamples = 310\nvalue = [70, 240]"] ;
95 -> 96 ;
97 [label="X[0] <= 0.475\nentropy = 0.753\nsamples = 208\nvalue = [45, 163]"] ;
96 -> 97 ;
98 [label="X[0] <= 0.465\nentropy = 0.79\nsamples = 114\nvalue = [27, 87]"] ;
97 -> 98 ;
99 [label="entropy = 0.804\nsamples = 57\nvalue = [14, 43]"] ;
98 -> 99 ;
100 [label="entropy = 0.775\nsamples = 57\nvalue = [13, 44]"] ;
98 -> 100 ;
101 [label="X[0] <= 0.485\nentropy = 0.705\nsamples = 94\nvalue = [18, 76]"] ;
97 -> 101 ;
102 [label="entropy = 0.689\nsamples = 38\nvalue = [7, 31]"] ;
101 -> 102 ;
103 [label="entropy = 0.715\nsamples = 56\nvalue = [11, 45]"] ;
101 -> 103 ;
104 [label="X[0] <= 0.505\nentropy = 0.803\nsamples = 102\nvalue = [25, 77]"] ;
96 -> 104 ;
105 [label="entropy = 0.818\nsamples = 55\nvalue = [14, 41]"] ;
104 -> 105 ;
106 [label="entropy = 0.785\nsamples = 47\nvalue = [11, 36]"] ;
104 -> 106 ;
107 [label="X[0] <= 0.525\nentropy = 0.696\nsamples = 80\nvalue = [15, 65]"] ;
95 -> 107 ;
108 [label="entropy = 0.614\nsamples = 33\nvalue = [5, 28]"] ;
107 -> 108 ;
109 [label="entropy = 0.747\nsamples = 47\nvalue = [10, 37]"] ;
107 -> 109 ;
110 [label="entropy = 0.42\nsamples = 47\nvalue = [4, 43]"] ;
94 -> 110 ;
111 [label="X[0] <= 0.615\nentropy = 0.778\nsamples = 691\nvalue = [159, 532]"] ;
93 -> 111 ;
112 [label="X[0] <= 0.605\nentropy = 0.838\nsamples = 265\nvalue = [71, 194]"] ;
111 -> 112 ;
113 [label="X[0] <= 0.555\nentropy = 0.82\nsamples = 231\nvalue = [59, 172]"] ;
112 -> 113 ;
114 [label="entropy = 0.918\nsamples = 39\nvalue = [13, 26]"] ;
113 -> 114 ;
115 [label="X[0] <= 0.595\nentropy = 0.794\nsamples = 192\nvalue = [46, 146]"] ;
113 -> 115 ;
116 [label="X[0] <= 0.565\nentropy = 0.816\nsamples = 154\nvalue = [39, 115]"] ;
115 -> 116 ;
117 [label="entropy = 0.73\nsamples = 49\nvalue = [10, 39]"] ;
116 -> 117 ;
118 [label="X[0] <= 0.585\nentropy = 0.85\nsamples = 105\nvalue = [29, 76]"] ;
116 -> 118 ;
119 [label="X[0] <= 0.575\nentropy = 0.827\nsamples = 73\nvalue = [19, 54]"] ;
118 -> 119 ;
120 [label="entropy = 0.822\nsamples = 35\nvalue = [9, 26]"] ;
119 -> 120 ;
121 [label="entropy = 0.831\nsamples = 38\nvalue = [10, 28]"] ;
119 -> 121 ;
122 [label="entropy = 0.896\nsamples = 32\nvalue = [10, 22]"] ;
118 -> 122 ;
123 [label="entropy = 0.689\nsamples = 38\nvalue = [7, 31]"] ;
115 -> 123 ;
124 [label="entropy = 0.937\nsamples = 34\nvalue = [12, 22]"] ;
112 -> 124 ;
125 [label="X[0] <= 0.745\nentropy = 0.735\nsamples = 426\nvalue = [88, 338]"] ;
111 -> 125 ;
126 [label="X[0] <= 0.625\nentropy = 0.71\nsamples = 350\nvalue = [68, 282]"] ;
125 -> 126 ;
127 [label="entropy = 0.555\nsamples = 31\nvalue = [4, 27]"] ;
126 -> 127 ;
128 [label="X[0] <= 0.675\nentropy = 0.723\nsamples = 319\nvalue = [64, 255]"] ;
126 -> 128 ;
129 [label="X[0] <= 0.655\nentropy = 0.758\nsamples = 137\nvalue = [30, 107]"] ;
128 -> 129 ;
130 [label="X[0] <= 0.645\nentropy = 0.701\nsamples = 79\nvalue = [15, 64]"] ;
129 -> 130 ;
131 [label="X[0] <= 0.635\nentropy = 0.779\nsamples = 52\nvalue = [12, 40]"] ;
130 -> 131 ;
132 [label="entropy = 0.684\nsamples = 22\nvalue = [4, 18]"] ;
131 -> 132 ;
133 [label="entropy = 0.837\nsamples = 30\nvalue = [8, 22]"] ;
131 -> 133 ;
134 [label="entropy = 0.503\nsamples = 27\nvalue = [3, 24]"] ;
130 -> 134 ;
135 [label="X[0] <= 0.665\nentropy = 0.825\nsamples = 58\nvalue = [15, 43]"] ;
129 -> 135 ;
136 [label="entropy = 0.877\nsamples = 27\nvalue = [8, 19]"] ;
135 -> 136 ;
137 [label="entropy = 0.771\nsamples = 31\nvalue = [7, 24]"] ;
135 -> 137 ;
138 [label="X[0] <= 0.705\nentropy = 0.695\nsamples = 182\nvalue = [34, 148]"] ;
128 -> 138 ;
139 [label="X[0] <= 0.695\nentropy = 0.634\nsamples = 75\nvalue = [12, 63]"] ;
138 -> 139 ;
140 [label="X[0] <= 0.685\nentropy = 0.722\nsamples = 40\nvalue = [8, 32]"] ;
139 -> 140 ;
141 [label="entropy = 0.575\nsamples = 22\nvalue = [3, 19]"] ;
140 -> 141 ;
142 [label="entropy = 0.852\nsamples = 18\nvalue = [5, 13]"] ;
140 -> 142 ;
143 [label="entropy = 0.513\nsamples = 35\nvalue = [4, 31]"] ;
139 -> 143 ;
144 [label="X[0] <= 0.725\nentropy = 0.733\nsamples = 107\nvalue = [22, 85]"] ;
138 -> 144 ;
145 [label="X[0] <= 0.715\nentropy = 0.755\nsamples = 46\nvalue = [10, 36]"] ;
144 -> 145 ;
146 [label="entropy = 0.764\nsamples = 27\nvalue = [6, 21]"] ;
145 -> 146 ;
147 [label="entropy = 0.742\nsamples = 19\nvalue = [4, 15]"] ;
145 -> 147 ;
148 [label="X[0] <= 0.735\nentropy = 0.715\nsamples = 61\nvalue = [12, 49]"] ;
144 -> 148 ;
149 [label="entropy = 0.663\nsamples = 29\nvalue = [5, 24]"] ;
148 -> 149 ;
150 [label="entropy = 0.758\nsamples = 32\nvalue = [7, 25]"] ;
148 -> 150 ;
151 [label="X[0] <= 0.765\nentropy = 0.831\nsamples = 76\nvalue = [20, 56]"] ;
125 -> 151 ;
152 [label="X[0] <= 0.755\nentropy = 0.863\nsamples = 42\nvalue = [12, 30]"] ;
151 -> 152 ;
153 [label="entropy = 0.881\nsamples = 20\nvalue = [6, 14]"] ;
152 -> 153 ;
154 [label="entropy = 0.845\nsamples = 22\nvalue = [6, 16]"] ;
152 -> 154 ;
155 [label="X[0] <= 0.775\nentropy = 0.787\nsamples = 34\nvalue = [8, 26]"] ;
151 -> 155 ;
156 [label="entropy = 0.764\nsamples = 18\nvalue = [4, 14]"] ;
155 -> 156 ;
157 [label="entropy = 0.811\nsamples = 16\nvalue = [4, 12]"] ;
155 -> 157 ;
158 [label="X[0] <= 2.67\nentropy = 0.61\nsamples = 660\nvalue = [99, 561]"] ;
86 -> 158 ;
159 [label="X[0] <= 1.835\nentropy = 0.602\nsamples = 647\nvalue = [95, 552]"] ;
158 -> 159 ;
160 [label="X[0] <= 1.82\nentropy = 0.619\nsamples = 618\nvalue = [95, 523]"] ;
159 -> 160 ;
161 [label="X[0] <= 1.665\nentropy = 0.616\nsamples = 616\nvalue = [94, 522]"] ;
160 -> 161 ;
162 [label="X[0] <= 1.655\nentropy = 0.623\nsamples = 599\nvalue = [93, 506]"] ;
161 -> 162 ;
163 [label="X[0] <= 1.635\nentropy = 0.62\nsamples = 597\nvalue = [92, 505]"] ;
162 -> 163 ;
164 [label="X[0] <= 1.555\nentropy = 0.623\nsamples = 592\nvalue = [92, 500]"] ;
163 -> 164 ;
165 [label="X[0] <= 1.375\nentropy = 0.614\nsamples = 574\nvalue = [87, 487]"] ;
164 -> 165 ;
166 [label="X[0] <= 1.325\nentropy = 0.63\nsamples = 531\nvalue = [84, 447]"] ;
165 -> 166 ;
167 [label="X[0] <= 1.265\nentropy = 0.617\nsamples = 510\nvalue = [78, 432]"] ;
166 -> 167 ;
168 [label="X[0] <= 0.845\nentropy = 0.632\nsamples = 472\nvalue = [75, 397]"] ;
167 -> 168 ;
169 [label="X[0] <= 0.815\nentropy = 0.541\nsamples = 129\nvalue = [16, 113]"] ;
168 -> 169 ;
170 [label="X[0] <= 0.805\nentropy = 0.597\nsamples = 76\nvalue = [11, 65]"] ;
169 -> 170 ;
171 [label="X[0] <= 0.795\nentropy = 0.516\nsamples = 52\nvalue = [6, 46]"] ;
170 -> 171 ;
172 [label="entropy = 0.503\nsamples = 27\nvalue = [3, 24]"] ;
171 -> 172 ;
173 [label="entropy = 0.529\nsamples = 25\nvalue = [3, 22]"] ;
171 -> 173 ;
174 [label="entropy = 0.738\nsamples = 24\nvalue = [5, 19]"] ;
170 -> 174 ;
175 [label="X[0] <= 0.835\nentropy = 0.451\nsamples = 53\nvalue = [5, 48]"] ;
169 -> 175 ;
176 [label="X[0] <= 0.825\nentropy = 0.406\nsamples = 37\nvalue = [3, 34]"] ;
175 -> 176 ;
177 [label="entropy = 0.485\nsamples = 19\nvalue = [2, 17]"] ;
176 -> 177 ;
178 [label="entropy = 0.31\nsamples = 18\nvalue = [1, 17]"] ;
176 -> 178 ;
179 [label="entropy = 0.544\nsamples = 16\nvalue = [2, 14]"] ;
175 -> 179 ;
180 [label="X[0] <= 0.855\nentropy = 0.662\nsamples = 343\nvalue = [59, 284]"] ;
168 -> 180 ;
181 [label="entropy = 0.98\nsamples = 12\nvalue = [5, 7]"] ;
180 -> 181 ;
182 [label="X[0] <= 0.865\nentropy = 0.642\nsamples = 331\nvalue = [54, 277]"] ;
180 -> 182 ;
183 [label="entropy = 0.0\nsamples = 11\nvalue = [0, 11]"] ;
182 -> 183 ;
184 [label="X[0] <= 0.895\nentropy = 0.655\nsamples = 320\nvalue = [54, 266]"] ;
182 -> 184 ;
185 [label="X[0] <= 0.885\nentropy = 0.802\nsamples = 45\nvalue = [11, 34]"] ;
184 -> 185 ;
186 [label="X[0] <= 0.875\nentropy = 0.672\nsamples = 34\nvalue = [6, 28]"] ;
185 -> 186 ;
187 [label="entropy = 0.787\nsamples = 17\nvalue = [4, 13]"] ;
186 -> 187 ;
188 [label="entropy = 0.523\nsamples = 17\nvalue = [2, 15]"] ;
186 -> 188 ;
189 [label="entropy = 0.994\nsamples = 11\nvalue = [5, 6]"] ;
185 -> 189 ;
190 [label="X[0] <= 0.925\nentropy = 0.626\nsamples = 275\nvalue = [43, 232]"] ;
184 -> 190 ;
191 [label="X[0] <= 0.905\nentropy = 0.345\nsamples = 31\nvalue = [2, 29]"] ;
190 -> 191 ;
192 [label="entropy = 0.65\nsamples = 6\nvalue = [1, 5]"] ;
191 -> 192 ;
193 [label="X[0] <= 0.915\nentropy = 0.242\nsamples = 25\nvalue = [1, 24]"] ;
191 -> 193 ;
194 [label="entropy = 0.0\nsamples = 12\nvalue = [0, 12]"] ;
193 -> 194 ;
195 [label="entropy = 0.391\nsamples = 13\nvalue = [1, 12]"] ;
193 -> 195 ;
196 [label="X[0] <= 0.935\nentropy = 0.653\nsamples = 244\nvalue = [41, 203]"] ;
190 -> 196 ;
197 [label="entropy = 0.89\nsamples = 13\nvalue = [4, 9]"] ;
196 -> 197 ;
198 [label="X[0] <= 1.175\nentropy = 0.635\nsamples = 231\nvalue = [37, 194]"] ;
196 -> 198 ;
199 [label="X[0] <= 1.145\nentropy = 0.592\nsamples = 182\nvalue = [26, 156]"] ;
198 -> 199 ;
200 [label="X[0] <= 1.035\nentropy = 0.628\nsamples = 165\nvalue = [26, 139]"] ;
199 -> 200 ;
201 [label="X[0] <= 0.975\nentropy = 0.567\nsamples = 90\nvalue = [12, 78]"] ;
200 -> 201 ;
202 [label="X[0] <= 0.955\nentropy = 0.722\nsamples = 40\nvalue = [8, 32]"] ;
201 -> 202 ;
203 [label="X[0] <= 0.945\nentropy = 0.575\nsamples = 22\nvalue = [3, 19]"] ;
202 -> 203 ;
204 [label="entropy = 0.619\nsamples = 13\nvalue = [2, 11]"] ;
203 -> 204 ;
205 [label="entropy = 0.503\nsamples = 9\nvalue = [1, 8]"] ;
203 -> 205 ;
206 [label="X[0] <= 0.965\nentropy = 0.852\nsamples = 18\nvalue = [5, 13]"] ;
202 -> 206 ;
207 [label="entropy = 0.811\nsamples = 12\nvalue = [3, 9]"] ;
206 -> 207 ;
208 [label="entropy = 0.918\nsamples = 6\nvalue = [2, 4]"] ;
206 -> 208 ;
209 [label="X[0] <= 0.985\nentropy = 0.402\nsamples = 50\nvalue = [4, 46]"] ;
201 -> 209 ;
210 [label="entropy = 0.0\nsamples = 9\nvalue = [0, 9]"] ;
209 -> 210 ;
211 [label="X[0] <= 1.015\nentropy = 0.461\nsamples = 41\nvalue = [4, 37]"] ;
209 -> 211 ;
212 [label="X[0] <= 0.995\nentropy = 0.491\nsamples = 28\nvalue = [3, 25]"] ;
211 -> 212 ;
213 [label="entropy = 0.439\nsamples = 11\nvalue = [1, 10]"] ;
212 -> 213 ;
214 [label="X[0] <= 1.005\nentropy = 0.523\nsamples = 17\nvalue = [2, 15]"] ;
212 -> 214 ;
215 [label="entropy = 0.503\nsamples = 9\nvalue = [1, 8]"] ;
214 -> 215 ;
216 [label="entropy = 0.544\nsamples = 8\nvalue = [1, 7]"] ;
214 -> 216 ;
217 [label="X[0] <= 1.025\nentropy = 0.391\nsamples = 13\nvalue = [1, 12]"] ;
211 -> 217 ;
218 [label="entropy = 0.0\nsamples = 4\nvalue = [0, 4]"] ;
217 -> 218 ;
219 [label="entropy = 0.503\nsamples = 9\nvalue = [1, 8]"] ;
217 -> 219 ;
220 [label="X[0] <= 1.055\nentropy = 0.694\nsamples = 75\nvalue = [14, 61]"] ;
200 -> 220 ;
221 [label="X[0] <= 1.045\nentropy = 0.845\nsamples = 22\nvalue = [6, 16]"] ;
220 -> 221 ;
222 [label="entropy = 0.65\nsamples = 12\nvalue = [2, 10]"] ;
221 -> 222 ;
223 [label="entropy = 0.971\nsamples = 10\nvalue = [4, 6]"] ;
221 -> 223 ;
224 [label="X[0] <= 1.075\nentropy = 0.612\nsamples = 53\nvalue = [8, 45]"] ;
220 -> 224 ;
225 [label="X[0] <= 1.065\nentropy = 0.353\nsamples = 15\nvalue = [1, 14]"] ;
224 -> 225 ;
226 [label="entropy = 0.469\nsamples = 10\nvalue = [1, 9]"] ;
225 -> 226 ;
227 [label="entropy = 0.0\nsamples = 5\nvalue = [0, 5]"] ;
225 -> 227 ;
228 [label="X[0] <= 1.115\nentropy = 0.689\nsamples = 38\nvalue = [7, 31]"] ;
224 -> 228 ;
229 [label="X[0] <= 1.095\nentropy = 0.592\nsamples = 21\nvalue = [3, 18]"] ;
228 -> 229 ;
230 [label="X[0] <= 1.085\nentropy = 0.629\nsamples = 19\nvalue = [3, 16]"] ;
229 -> 230 ;
231 [label="entropy = 0.619\nsamples = 13\nvalue = [2, 11]"] ;
230 -> 231 ;
232 [label="entropy = 0.65\nsamples = 6\nvalue = [1, 5]"] ;
230 -> 232 ;
233 [label="entropy = 0.0\nsamples = 2\nvalue = [0, 2]"] ;
229 -> 233 ;
234 [label="X[0] <= 1.125\nentropy = 0.787\nsamples = 17\nvalue = [4, 13]"] ;
228 -> 234 ;
235 [label="entropy = 1.0\nsamples = 4\nvalue = [2, 2]"] ;
234 -> 235 ;
236 [label="X[0] <= 1.135\nentropy = 0.619\nsamples = 13\nvalue = [2, 11]"] ;
234 -> 236 ;
237 [label="entropy = 0.503\nsamples = 9\nvalue = [1, 8]"] ;
236 -> 237 ;
238 [label="entropy = 0.811\nsamples = 4\nvalue = [1, 3]"] ;
236 -> 238 ;
239 [label="entropy = 0.0\nsamples = 17\nvalue = [0, 17]"] ;
199 -> 239 ;
240 [label="X[0] <= 1.215\nentropy = 0.768\nsamples = 49\nvalue = [11, 38]"] ;
198 -> 240 ;
241 [label="X[0] <= 1.195\nentropy = 0.89\nsamples = 26\nvalue = [8, 18]"] ;
240 -> 241 ;
242 [label="X[0] <= 1.185\nentropy = 0.75\nsamples = 14\nvalue = [3, 11]"] ;
241 -> 242 ;
243 [label="entropy = 0.918\nsamples = 6\nvalue = [2, 4]"] ;
242 -> 243 ;
244 [label="entropy = 0.544\nsamples = 8\nvalue = [1, 7]"] ;
242 -> 244 ;
245 [label="X[0] <= 1.205\nentropy = 0.98\nsamples = 12\nvalue = [5, 7]"] ;
241 -> 245 ;
246 [label="entropy = 1.0\nsamples = 4\nvalue = [2, 2]"] ;
245 -> 246 ;
247 [label="entropy = 0.954\nsamples = 8\nvalue = [3, 5]"] ;
245 -> 247 ;
248 [label="X[0] <= 1.25\nentropy = 0.559\nsamples = 23\nvalue = [3, 20]"] ;
240 -> 248 ;
249 [label="X[0] <= 1.225\nentropy = 0.337\nsamples = 16\nvalue = [1, 15]"] ;
248 -> 249 ;
250 [label="entropy = 0.0\nsamples = 5\nvalue = [0, 5]"] ;
249 -> 250 ;
251 [label="X[0] <= 1.235\nentropy = 0.439\nsamples = 11\nvalue = [1, 10]"] ;
249 -> 251 ;
252 [label="entropy = 0.592\nsamples = 7\nvalue = [1, 6]"] ;
251 -> 252 ;
253 [label="entropy = 0.0\nsamples = 4\nvalue = [0, 4]"] ;
251 -> 253 ;
254 [label="entropy = 0.863\nsamples = 7\nvalue = [2, 5]"] ;
248 -> 254 ;
255 [label="X[0] <= 1.285\nentropy = 0.398\nsamples = 38\nvalue = [3, 35]"] ;
167 -> 255 ;
256 [label="entropy = 0.0\nsamples = 21\nvalue = [0, 21]"] ;
255 -> 256 ;
257 [label="X[0] <= 1.305\nentropy = 0.672\nsamples = 17\nvalue = [3, 14]"] ;
255 -> 257 ;
258 [label="X[0] <= 1.295\nentropy = 0.863\nsamples = 7\nvalue = [2, 5]"] ;
257 -> 258 ;
259 [label="entropy = 0.918\nsamples = 3\nvalue = [1, 2]"] ;
258 -> 259 ;
260 [label="entropy = 0.811\nsamples = 4\nvalue = [1, 3]"] ;
258 -> 260 ;
261 [label="X[0] <= 1.315\nentropy = 0.469\nsamples = 10\nvalue = [1, 9]"] ;
257 -> 261 ;
262 [label="entropy = 0.0\nsamples = 4\nvalue = [0, 4]"] ;
261 -> 262 ;
263 [label="entropy = 0.65\nsamples = 6\nvalue = [1, 5]"] ;
261 -> 263 ;
264 [label="X[0] <= 1.335\nentropy = 0.863\nsamples = 21\nvalue = [6, 15]"] ;
166 -> 264 ;
265 [label="entropy = 0.918\nsamples = 3\nvalue = [2, 1]"] ;
264 -> 265 ;
266 [label="X[0] <= 1.365\nentropy = 0.764\nsamples = 18\nvalue = [4, 14]"] ;
264 -> 266 ;
267 [label="X[0] <= 1.345\nentropy = 0.696\nsamples = 16\nvalue = [3, 13]"] ;
266 -> 267 ;
268 [label="entropy = 0.918\nsamples = 6\nvalue = [2, 4]"] ;
267 -> 268 ;
269 [label="X[0] <= 1.355\nentropy = 0.469\nsamples = 10\nvalue = [1, 9]"] ;
267 -> 269 ;
270 [label="entropy = 0.0\nsamples = 4\nvalue = [0, 4]"] ;
269 -> 270 ;
271 [label="entropy = 0.65\nsamples = 6\nvalue = [1, 5]"] ;
269 -> 271 ;
272 [label="entropy = 1.0\nsamples = 2\nvalue = [1, 1]"] ;
266 -> 272 ;
273 [label="X[0] <= 1.465\nentropy = 0.365\nsamples = 43\nvalue = [3, 40]"] ;
165 -> 273 ;
274 [label="entropy = 0.0\nsamples = 18\nvalue = [0, 18]"] ;
273 -> 274 ;
275 [label="X[0] <= 1.475\nentropy = 0.529\nsamples = 25\nvalue = [3, 22]"] ;
273 -> 275 ;
276 [label="entropy = 1.0\nsamples = 2\nvalue = [1, 1]"] ;
275 -> 276 ;
277 [label="X[0] <= 1.525\nentropy = 0.426\nsamples = 23\nvalue = [2, 21]"] ;
275 -> 277 ;
278 [label="entropy = 0.0\nsamples = 12\nvalue = [0, 12]"] ;
277 -> 278 ;
279 [label="X[0] <= 1.545\nentropy = 0.684\nsamples = 11\nvalue = [2, 9]"] ;
277 -> 279 ;
280 [label="X[0] <= 1.535\nentropy = 0.918\nsamples = 6\nvalue = [2, 4]"] ;
279 -> 280 ;
281 [label="entropy = 1.0\nsamples = 2\nvalue = [1, 1]"] ;
280 -> 281 ;
282 [label="entropy = 0.811\nsamples = 4\nvalue = [1, 3]"] ;
280 -> 282 ;
283 [label="entropy = 0.0\nsamples = 5\nvalue = [0, 5]"] ;
279 -> 283 ;
284 [label="X[0] <= 1.59\nentropy = 0.852\nsamples = 18\nvalue = [5, 13]"] ;
164 -> 284 ;
285 [label="X[0] <= 1.57\nentropy = 0.918\nsamples = 3\nvalue = [2, 1]"] ;
284 -> 285 ;
286 [label="entropy = 1.0\nsamples = 2\nvalue = [1, 1]"] ;
285 -> 286 ;
287 [label="entropy = 0.0\nsamples = 1\nvalue = [1, 0]"] ;
285 -> 287 ;
288 [label="X[0] <= 1.62\nentropy = 0.722\nsamples = 15\nvalue = [3, 12]"] ;
284 -> 288 ;
289 [label="X[0] <= 1.605\nentropy = 0.544\nsamples = 8\nvalue = [1, 7]"] ;
288 -> 289 ;
290 [label="entropy = 0.918\nsamples = 3\nvalue = [1, 2]"] ;
289 -> 290 ;
291 [label="entropy = 0.0\nsamples = 5\nvalue = [0, 5]"] ;
289 -> 291 ;
292 [label="entropy = 0.863\nsamples = 7\nvalue = [2, 5]"] ;
288 -> 292 ;
293 [label="entropy = 0.0\nsamples = 5\nvalue = [0, 5]"] ;
163 -> 293 ;
294 [label="entropy = 1.0\nsamples = 2\nvalue = [1, 1]"] ;
162 -> 294 ;
295 [label="X[0] <= 1.755\nentropy = 0.323\nsamples = 17\nvalue = [1, 16]"] ;
161 -> 295 ;
296 [label="entropy = 0.0\nsamples = 11\nvalue = [0, 11]"] ;
295 -> 296 ;
297 [label="X[0] <= 1.765\nentropy = 0.65\nsamples = 6\nvalue = [1, 5]"] ;
295 -> 297 ;
298 [label="entropy = 1.0\nsamples = 2\nvalue = [1, 1]"] ;
297 -> 298 ;
299 [label="entropy = 0.0\nsamples = 4\nvalue = [0, 4]"] ;
297 -> 299 ;
300 [label="entropy = 1.0\nsamples = 2\nvalue = [1, 1]"] ;
160 -> 300 ;
301 [label="entropy = 0.0\nsamples = 29\nvalue = [0, 29]"] ;
159 -> 301 ;
302 [label="X[0] <= 3.01\nentropy = 0.89\nsamples = 13\nvalue = [4, 9]"] ;
158 -> 302 ;
303 [label="X[0] <= 2.71\nentropy = 0.985\nsamples = 7\nvalue = [4, 3]"] ;
302 -> 303 ;
304 [label="entropy = 0.0\nsamples = 1\nvalue = [1, 0]"] ;
303 -> 304 ;
305 [label="X[0] <= 2.775\nentropy = 1.0\nsamples = 6\nvalue = [3, 3]"] ;
303 -> 305 ;
306 [label="entropy = 0.0\nsamples = 1\nvalue = [0, 1]"] ;
305 -> 306 ;
307 [label="X[0] <= 2.94\nentropy = 0.971\nsamples = 5\nvalue = [3, 2]"] ;
305 -> 307 ;
308 [label="entropy = 0.0\nsamples = 2\nvalue = [2, 0]"] ;
307 -> 308 ;
309 [label="X[0] <= 2.965\nentropy = 0.918\nsamples = 3\nvalue = [1, 2]"] ;
307 -> 309 ;
310 [label="entropy = 0.0\nsamples = 1\nvalue = [0, 1]"] ;
309 -> 310 ;
311 [label="entropy = 1.0\nsamples = 2\nvalue = [1, 1]"] ;
309 -> 311 ;
312 [label="entropy = 0.0\nsamples = 6\nvalue = [0, 6]"] ;
302 -> 312 ;
}